{"sparse_grid_resolution": 512, "sparse_grid_voxel_size": 0.00390625, "range_features": [-7.0, 7.0], "range_density": [-14.0, 14.0], "z_min_init": 213.0, "LS_z": 88.0, "occgridsize": 512, "occvoxelsize": 0.00390625, "triplane_resolution": 2048, "triplane_resolution_z": 352, "triplane_resolution_z_init": 852, "triplane_voxel_size": 0.0009765625, "data_block_size": 16, "atlas_width": 1836, "atlas_height": 289, "atlas_depth": 17, "num_slices": 17, "slice_depth": 1, "0_weights": [[-0.3371918499469757, 3.866495370864868, -1.5559903383255005, -0.14279857277870178, 1.5116463899612427, 1.9179089069366455, 0.8940744996070862, 2.3002731800079346, 0.27869096398353577, 0.8638819456100464, 0.6459002494812012, 0.36052510142326355, -0.10859337449073792, -3.0191128253936768, 1.9213693141937256, -0.284185528755188], [-0.864622175693512, -1.993694543838501, -0.30988404154777527, -0.45396602153778076, -2.6956920623779297, -1.0811691284179688, 1.8740583658218384, -0.5894128084182739, -0.11652092635631561, 2.1943564414978027, 1.1992521286010742, 2.511105537414551, -0.30366793274879456, -2.5287747383117676, 1.2230907678604126, -0.37318626046180725], [1.5115522146224976, 3.476754665374756, -0.452247679233551, 2.406938314437866, -1.9553194046020508, -2.8250133991241455, 0.7787923216819763, -1.353707194328308, -0.21505425870418549, 1.9777909517288208, 1.378088355064392, 0.4951469600200653, 0.26090478897094727, -0.4712478220462799, 1.864801049232483, -0.22545261681079865], [3.385352611541748, 0.2982398271560669, 0.912972092628479, -2.252871513366699, 3.410205125808716, -1.289279818534851, 3.237776756286621, -1.47637140750885, -0.5277559161186218, -1.2008825540542603, -3.0490572452545166, 2.362549304962158, 5.952733516693115, 3.9742608070373535, 0.8172186613082886, -0.35875681042671204], [1.3134931325912476, 1.1814121007919312, -0.8110224008560181, 0.7687312364578247, -0.8404712080955505, -1.7172960042953491, -2.510793685913086, -0.31343454122543335, 0.12045161426067352, -0.6979066729545593, 2.723832368850708, -2.2612125873565674, -1.0319504737854004, -1.8674108982086182, -1.7892094850540161, 0.020599184557795525], [-0.08620066195726395, -1.432155966758728, -0.47584718465805054, -0.8144242167472839, -1.9167011976242065, -1.0354838371276855, 0.5027723908424377, -2.4791951179504395, -0.08404403924942017, -0.37979596853256226, -0.41220688819885254, 0.5532644987106323, -0.5098224878311157, 0.3867309093475342, 0.06099982559680939, -0.5313156843185425], [0.9349702596664429, 0.6424093246459961, 1.988002896308899, 0.24895153939723969, 0.25500041246414185, 3.191190004348755, 0.3303174674510956, -0.3884790539741516, -0.021319424733519554, -1.5580635070800781, -0.26943162083625793, 0.4959377944469452, -0.44369152188301086, 0.43066126108169556, -0.6612710356712341, -0.2316567748785019], [0.23833014070987701, 0.06897056102752686, -0.004266577772796154, -0.3699401021003723, -0.3534216582775116, 0.9234389662742615, 0.12912948429584503, -0.3246350884437561, 0.05865436792373657, -0.3745959401130676, -0.20004265010356903, -0.4068254232406616, 0.07894698530435562, 0.12363508343696594, -0.231703981757164, -0.16484704613685608], [0.11652928590774536, -0.17893041670322418, 0.24515122175216675, 0.014723842963576317, -0.03548628091812134, -0.2508935034275055, -0.6488963961601257, -0.003267634194344282, 0.06873857229948044, 0.10012241452932358, -0.08919021487236023, -0.1549101322889328, -0.374996542930603, -0.09166956692934036, -0.34333157539367676, 0.010647742077708244], [-0.14669296145439148, 0.15213467180728912, -0.11332536488771439, -0.25659647583961487, 0.0019026368390768766, -0.24089834094047546, 0.28335174918174744, 0.25429767370224, 1.1564202308654785, 0.06588642299175262, -0.03070162795484066, 0.9307872653007507, -0.3018242120742798, -0.00348937907256186, -0.1940717250108719, 0.07390483468770981], [0.1742628812789917, 0.14285358786582947, 0.2454494684934616, -0.05335421860218048, -0.002654819516465068, 0.8636619448661804, 0.0019983858801424503, -0.057597558945417404, 0.17807838320732117, -0.11010456830263138, -0.035818930715322495, -0.0707903802394867, -0.02097691223025322, 0.00021937437122687697, -0.08068689703941345, -0.02531011775135994], [-0.003110405756160617, -0.18428170680999756, 0.5126005411148071, -0.32150837779045105, 0.07172788679599762, -0.32905492186546326, -0.08347214758396149, 0.1536092758178711, 0.012162016704678535, 0.08566645532846451, 0.1387508064508438, -0.008811933919787407, -0.2881031334400177, 0.01888948865234852, -0.15653927624225616, -0.0071458593010902405], [0.12795284390449524, 0.08730389922857285, -0.2518468499183655, -0.37715640664100647, 0.10096664726734161, 0.002385214436799288, 0.3310457170009613, 0.15356333553791046, 1.1290034055709839, -0.019102860242128372, 0.07778780162334442, 0.5317690968513489, -0.3402468264102936, 0.18720176815986633, 0.0674530491232872, 0.06761639565229416], [-0.24824835360050201, -0.10400145500898361, 0.19888661801815033, 0.23107552528381348, 0.1632423847913742, 0.6346653699874878, -0.08825886994600296, 0.33317098021507263, 0.027774199843406677, 0.3555021584033966, 0.08704401552677155, 0.4561358392238617, -0.15445491671562195, -0.14391671121120453, 0.230226531624794, 0.09241344779729843], [0.04568176344037056, 0.33920103311538696, 0.4758572578430176, -0.12248646467924118, -0.21323856711387634, -0.3857448995113373, 0.42010846734046936, -0.11779811233282089, -0.09953264892101288, -0.24538512527942657, -0.07954774796962738, 0.09436032921075821, 0.05312904343008995, 0.12565189599990845, 0.24167020618915558, 0.025943933054804802], [0.04302890971302986, -0.1520819067955017, -0.1621357649564743, -0.32830810546875, -0.18034608662128448, 0.21577928960323334, 0.006202041171491146, 0.1906600147485733, 1.1333012580871582, -0.07364542037248611, 0.035564206540584564, 0.32968610525131226, -0.1234038770198822, 0.22637023031711578, -0.0460076779127121, -0.05070783942937851], [0.11534062027931213, -0.03584197536110878, -0.0764591246843338, 0.0010989612201228738, -0.04348611831665039, -0.40058279037475586, -0.07211259007453918, -0.19939951598644257, -0.09955169260501862, 0.032201316207647324, 0.023915616795420647, -0.1326986402273178, 0.06354659050703049, 0.013034041039645672, 0.029963642358779907, -0.009158750995993614], [0.09842600673437119, -0.14039385318756104, -0.03153892606496811, 0.016732461750507355, 0.04657008498907089, 0.11273076385259628, -0.10758187621831894, 0.053174495697021484, 0.05464261397719383, 0.33964428305625916, 0.019509734585881233, -0.14631423354148865, -0.08931586891412735, -0.060869261622428894, -0.039743006229400635, 0.021965768188238144], [0.15333975851535797, -0.4679666757583618, 0.5495806336402893, 0.8516409993171692, 0.03687873110175133, 0.7450159788131714, -0.8150808811187744, -0.3667362630367279, -2.299997091293335, -0.4958960711956024, 1.01720130443573, -0.8698248267173767, 0.40218767523765564, -0.4719540476799011, -0.11832920461893082, 0.1646820604801178], [-0.0044496445916593075, 0.0209149569272995, 0.033945366740226746, -0.012058195658028126, -0.004198287148028612, -0.052442412823438644, 0.02703450806438923, 0.0073584094643592834, 0.03636329993605614, -0.04445626214146614, -0.003721238812431693, 0.00507828313857317, -0.018427953124046326, 0.005649354308843613, -0.010155350901186466, 0.027323663234710693], [-0.00040864155744202435, 0.011213413439691067, 0.03332969546318054, -0.0032231053337454796, 0.12172546982765198, -0.020407013595104218, -0.013113078661262989, 0.0005350486026145518, -0.009659312665462494, -0.04152046516537666, 0.0012943666661158204, 0.0071617658250033855, -0.006051716860383749, -0.007695164997130632, 0.009370822459459305, -0.08700971305370331], [-1.4341096878051758, -0.38128843903541565, -0.19173690676689148, 0.7281543612480164, -4.088803768157959, 0.35822659730911255, -2.240589141845703, -1.5694581270217896, 1.901240348815918, -0.5532451868057251, 0.06277744472026825, -1.2020721435546875, 0.6690647602081299, 0.6088157296180725, 0.025717051699757576, -0.17845898866653442], [-0.03823690488934517, 0.11843939125537872, -0.023884698748588562, 0.057807065546512604, 0.47138074040412903, -0.26588356494903564, 0.014035864733159542, 0.42101261019706726, -0.13478344678878784, -0.0864674299955368, -0.2792714536190033, 0.10534460097551346, 0.3610870838165283, 0.180546373128891, 0.019445305690169334, -0.17019803822040558], [0.19731006026268005, 0.08801967650651932, 0.22776949405670166, -0.019610688090324402, 0.33442288637161255, 0.0953042134642601, 0.011315018869936466, 0.140100359916687, -0.32239505648612976, 0.06972453743219376, -0.09202171862125397, 0.17669792473316193, 0.14269107580184937, -0.0026346708182245493, 0.02464684657752514, 0.008045140653848648], [-0.09794165194034576, 0.2756437361240387, 0.11153025925159454, -0.09197262674570084, 0.9106220006942749, -0.41842183470726013, 0.06431915611028671, 0.5467298626899719, -0.5693086385726929, 0.27812108397483826, -0.19252538681030273, 0.7131949663162231, 0.007787975948303938, 0.11476413160562515, 0.04542354866862297, -0.07038119435310364], [-0.13314272463321686, -0.19092518091201782, -0.40746229887008667, 0.3328656554222107, 0.03231966495513916, -1.1392604112625122, -0.6765578389167786, 0.028410421684384346, 0.31857773661613464, -0.0963287279009819, 0.1381710171699524, -0.147174671292305, 0.7136718034744263, -0.13012686371803284, -0.07887928187847137, -0.0932706817984581], [0.12688502669334412, 0.019976094365119934, 0.8741191029548645, 0.19612403213977814, -0.04194267466664314, 0.4930022060871124, -0.4387492835521698, 0.09231710433959961, 0.17953670024871826, 0.10208995640277863, 0.1159079521894455, -0.5954440236091614, -0.0009310635505244136, -0.07846134901046753, 0.19993244111537933, -0.2879956066608429], [-0.026363147422671318, 0.3807573914527893, -0.5256435871124268, -1.2633522748947144, 1.7779207229614258, -1.1092296838760376, 1.3208849430084229, 1.5340392589569092, -2.5966620445251465, 0.5128803253173828, -1.8994792699813843, 2.450223684310913, -0.4668455123901367, 1.2115271091461182, 0.2452792227268219, -0.1765386015176773], [0.08853817731142044, 0.04476907476782799, 0.25614964962005615, -0.18030999600887299, -0.2115957885980606, 0.045055340975522995, -0.010080280713737011, -0.04333537817001343, 1.077224850654602, 0.28972265124320984, -0.09967067837715149, -0.09211978316307068, -0.28049278259277344, -0.03536335006356239, 0.07726358622312546, 0.06411255151033401], [-0.18812575936317444, -0.033874012529850006, -0.31995680928230286, -0.03159922733902931, -0.10418328642845154, -0.1998705267906189, -0.02781491167843342, 0.04299104958772659, 0.9827960133552551, -0.07927756756544113, -0.1001514196395874, 0.3160199820995331, 0.1937161237001419, -0.03317747265100479, -0.11769568175077438, 0.1690790057182312], [0.5343266725540161, 0.07671291381120682, -0.2870063781738281, -0.5621815323829651, 5.978944778442383, -0.41495344042778015, 0.16535082459449768, 1.5957540273666382, -0.36488571763038635, 0.040963687002658844, -0.1661689132452011, 1.7655494213104248, -0.5040838122367859, 0.6420880556106567, -0.32190078496932983, -0.009699259884655476], [0.019769608974456787, 0.0063893115147948265, -0.006091385614126921, 0.0027849951293319464, 0.042930398136377335, -0.12531499564647675, -0.025526974350214005, -0.022850997745990753, -0.32106879353523254, -0.014696972444653511, 0.02414991334080696, -0.05168730765581131, 0.03697734698653221, -0.003995229490101337, 0.03343731537461281, -0.03972882777452469], [0.0025722854770720005, 0.010689321905374527, -0.018552055582404137, 0.055282577872276306, 0.04752403497695923, 0.035946622490882874, -0.0008999053388834, -0.004972523078322411, -0.3005402684211731, 0.012160521000623703, 0.022213241085410118, -0.0010285212192684412, 0.013684202916920185, -0.009824599139392376, 0.012795347720384598, -0.015191090293228626], [0.030186474323272705, -0.15509964525699615, -0.35359132289886475, 0.028498580679297447, -1.9213961362838745, -1.0695126056671143, 0.7375984787940979, -0.07546088099479675, 1.2545666694641113, -0.020773870870471, 0.17073620855808258, 0.5519288182258606, -0.5098492503166199, -0.740057647228241, -0.44765958189964294, 0.051970161497592926]], "1_weights": [[0.18000870943069458, -0.2902027368545532, -0.23628713190555573, -0.7505789995193481, -0.5477885007858276, 0.17971369624137878, -0.15063203871250153, 0.9284414052963257, -0.537839412689209, 0.01437316369265318, -0.6869189143180847, -0.20701391994953156, -0.7985423803329468, 0.11272460967302322, -0.5537327527999878, 0.23116132616996765], [0.29295605421066284, -0.44024205207824707, -0.038049910217523575, -0.3449312150478363, -0.19139273464679718, -0.17416919767856598, 0.11298291385173798, 0.8306394219398499, 0.03385961055755615, -0.4134610593318939, 0.689355731010437, -0.2712844908237457, -0.2984389066696167, 0.5428071618080139, -0.3951800465583801, 0.36364099383354187], [0.1983780562877655, -0.06544739007949829, -0.1704324334859848, 0.15628750622272491, 0.149669349193573, 0.21534541249275208, 0.29907897114753723, -0.40323537588119507, 0.17655543982982635, 0.5749160647392273, 0.4255140423774719, 0.048505187034606934, 0.0070633958093822, 0.5965009927749634, -0.20082759857177734, 0.1336980164051056], [0.18646571040153503, -0.2274514138698578, -0.2533055245876312, -0.7097525596618652, 0.3552776277065277, 0.2110389620065689, -0.336759477853775, -0.07876135408878326, 0.03481478989124298, 0.32651928067207336, 0.23995086550712585, 0.03217838332056999, 0.20247235894203186, 0.4962752163410187, -0.16901904344558716, 0.44421446323394775], [1.1304391622543335, -0.07594688981771469, -0.0655355304479599, -0.5306000113487244, 0.4352625012397766, 0.5478071570396423, -0.17804312705993652, -0.18887776136398315, -0.3128034770488739, 0.5507640838623047, 0.0015427065081894398, -0.08687671273946762, 1.0686081647872925, 1.4581410884857178, -0.20618341863155365, -1.0197739601135254], [0.3546178936958313, -0.32084745168685913, -0.22005921602249146, 0.2941209375858307, -0.027918443083763123, 0.3501979112625122, -0.8783648610115051, -0.23579668998718262, 0.4326855540275574, 0.25254857540130615, 0.17408224940299988, 0.07338988780975342, 0.1000494584441185, 0.8004598021507263, -0.058632753789424896, 0.565035343170166], [0.1384812444448471, -0.04460533335804939, 0.12899507582187653, 0.7219258546829224, 0.050701603293418884, -0.2656484842300415, 0.8101909160614014, -0.15030866861343384, 0.7314090728759766, 0.1632983237504959, -0.07690052688121796, -0.10553357005119324, -0.14558157324790955, 0.07897517085075378, -0.1859566569328308, 0.5846219062805176], [0.12828312814235687, 0.11485911905765533, -0.016601193696260452, 0.7304607629776001, -1.446500301361084, -0.555599570274353, -0.42403629422187805, -0.31902971863746643, -1.0803171396255493, -1.4885249137878418, 0.2821022570133209, 0.168104887008667, 1.1704319715499878, -0.6524197459220886, 0.08809573203325272, 0.2272983193397522], [-1.0246522426605225, -0.05267951637506485, -0.06643692404031754, -2.1042747497558594, -1.2246004343032837, -0.3710717260837555, -3.961834192276001, 5.342274188995361, 8.51867389678955, 3.1923673152923584, -1.589005470275879, -0.06820959597826004, 1.5166962146759033, -1.1296464204788208, 0.03834623470902443, -1.6015619039535522], [-0.17394275963306427, -0.06029730290174484, 0.08515385538339615, -0.23208540678024292, 0.5409657955169678, 0.036020729690790176, 0.6529840230941772, -0.13163726031780243, -3.0683932304382324, -0.30033227801322937, 0.41557666659355164, 0.05971268564462662, 0.7935812473297119, 0.061661772429943085, -0.3927086293697357, -0.07665760815143585], [-0.3601776361465454, -0.2955130934715271, -0.1703936606645584, 0.35330575704574585, 0.8797990083694458, -0.3506660461425781, -0.5380996465682983, -1.1234431266784668, -4.616074085235596, 0.029250208288431168, 0.7660045623779297, 0.052174851298332214, 0.7106428742408752, -0.6076350808143616, -0.17112289369106293, -0.587656557559967], [0.05167344585061073, -0.23773549497127533, -0.0966998040676117, 0.6959025859832764, 0.07427001744508743, 0.439314603805542, -0.9494748115539551, -0.18005117774009705, 0.34838005900382996, 0.12669554352760315, 0.11539873480796814, -0.5267390012741089, 0.8674705624580383, 0.4956199526786804, -0.3283914029598236, 0.49795153737068176], [-0.17177364230155945, -0.23204244673252106, -0.09423264861106873, 0.6486987471580505, -0.20633035898208618, 0.15758298337459564, 0.7036173343658447, 0.006845010444521904, -0.006690651644021273, 0.5704795718193054, -0.06193371117115021, -0.258161723613739, -0.6631422638893127, 0.07246774435043335, -0.3016054034233093, 0.13338933885097504], [0.5558814406394958, 0.012981632724404335, -0.1569410115480423, 1.4266761541366577, -0.251736581325531, 0.11715738475322723, 0.8425251841545105, -0.6947882771492004, 0.2577548325061798, 0.0990925282239914, 0.016746804118156433, -0.11127424985170364, 1.82059645652771, 0.33712780475616455, -0.16229017078876495, -0.11143190413713455], [0.34265539050102234, -0.22479599714279175, -0.21454840898513794, -0.4595869779586792, -0.573642909526825, 0.030808454379439354, 0.2142375260591507, -0.7326697111129761, -0.8738616704940796, 0.07382366806268692, -0.07172150164842606, -0.04638505354523659, 0.21991217136383057, 0.5497348308563232, -0.25034964084625244, 0.5026885271072388], [0.0963517278432846, 0.11226113140583038, -0.040804654359817505, -0.2202519327402115, 0.10263355821371078, 0.3675667345523834, 0.31965336203575134, -0.2685736417770386, -0.30398786067962646, 0.08440976589918137, 0.2710140645503998, 0.16461127996444702, -0.300964891910553, 0.300549179315567, 0.15060390532016754, 0.1611512452363968]], "2_weights": [[-0.08597779273986816, 0.0036514699459075928, -0.18983745574951172], [-0.11478769779205322, 0.03149593994021416, 0.1339847445487976], [-0.24651823937892914, 0.04412722587585449, 0.14813067018985748], [-0.3349456489086151, -0.3347865045070648, -0.35750114917755127], [-0.5806549191474915, -0.5552414059638977, -0.6956083178520203], [-0.05755787715315819, -0.03718981519341469, -0.22734491527080536], [-0.23083913326263428, -0.21730531752109528, -0.265200138092041], [0.8848473429679871, 0.9023816585540771, 0.968936562538147], [0.3533187806606293, 0.34636780619621277, 0.46733492612838745], [0.3502061069011688, 0.37837865948677063, 0.40994203090667725], [-0.4754195809364319, -0.4048958718776703, -0.4776761829853058], [-0.17928194999694824, 0.02242960035800934, -0.22188296914100647], [0.3343747854232788, 0.31967076659202576, 0.38936540484428406], [-0.3101932406425476, -0.374838262796402, -0.23026131093502045], [0.2110191136598587, -0.17408427596092224, 0.21012742817401886], [-0.2607155442237854, -0.25517362356185913, -0.28497257828712463]], "0_bias": [0.21236862242221832, 0.11512138694524765, 0.17425817251205444, 0.21466417610645294, 0.6683883666992188, -0.32454347610473633, -0.035193003714084625, 0.4082927107810974, -0.339987188577652, 0.18250206112861633, -0.19677962362766266, 0.23333190381526947, 0.24658243358135223, 0.1767703741788864, 0.1586093157529831, 0.007744255010038614], "1_bias": [0.05951576307415962, -0.01587224379181862, -0.11081260442733765, 0.26965129375457764, 1.1243442296981812, -0.06855729222297668, -0.7685297727584839, -0.5594962239265442, -0.2617579400539398, -1.0915610790252686, -0.8547527194023132, -0.26668280363082886, 0.7588764429092407, 0.025096915662288666, -0.19131839275360107, 0.06506907194852829], "2_bias": [-0.29432493448257446, -0.27092984318733215, -0.49139198660850525]}