{"sparse_grid_resolution": 512, "sparse_grid_voxel_size": 0.00390625, "range_features": [-7.0, 7.0], "range_density": [-14.0, 14.0], "z_min_init": 181.0, "occgridsize": 512, "occvoxelsize": 0.00390625, "triplane_resolution": 2048, "triplane_resolution_z": 204, "triplane_resolution_z_init": 724, "triplane_voxel_size": 0.0009765625, "data_block_size": 16, "atlas_width": 1836, "atlas_height": 289, "atlas_depth": 17, "num_slices": 17, "slice_depth": 1, "0_weights": [[0.7269195914268494, -2.5911920070648193, 1.2528643608093262, -0.6156685948371887, -3.130410671234131, 0.22209393978118896, 0.4526320993900299, 3.6368696689605713, 0.02790640853345394, -1.4581228494644165, 0.16160693764686584, 0.7621549367904663, 1.7320374250411987, 1.5076603889465332, -0.029040686786174774, -0.7774643301963806], [1.8069664239883423, -0.8155959248542786, -1.4412424564361572, -0.39395326375961304, -8.820653915405273, -0.4308118522167206, -0.4289338290691376, 0.6698856949806213, 0.7956961989402771, 1.4088499546051025, 1.3082674741744995, -0.2668208181858063, -0.1911628693342209, 2.1814918518066406, -0.17750217020511627, -0.9878152012825012], [2.255964517593384, -2.3620498180389404, -3.7860825061798096, -1.3107272386550903, -4.037438869476318, -3.6374411582946777, -1.2820026874542236, -7.038814067840576, 0.0592615008354187, -2.3804142475128174, 3.0512068271636963, -1.5300788879394531, -2.0927734375, 3.154867649078369, -0.4121251404285431, 0.19264183938503265], [2.424090623855591, -1.0735647678375244, 0.012495690025389194, 0.9921289086341858, -0.8631373047828674, -1.4467525482177734, -0.21437521278858185, -2.4221107959747314, 1.4150469303131104, -0.5345100164413452, 1.0940896272659302, -0.4286509156227112, -3.305428981781006, 0.0014602901646867394, -0.4680953323841095, 0.44178634881973267], [-0.12122971564531326, -1.7904959917068481, -4.476191520690918, -0.7993755340576172, -5.882482051849365, -10.869576454162598, -0.06611093133687973, -29.300992965698242, -0.9497568607330322, 0.9114248752593994, 1.6575233936309814, -0.10972891002893448, 0.11777206510305405, 0.2662772238254547, 0.2670001983642578, 1.1912249326705933], [1.6004289388656616, -1.1291097402572632, -2.103515386581421, -0.7337372899055481, -1.4193717241287231, -5.902758598327637, -0.15859657526016235, -6.189413070678711, -0.5158843994140625, -0.16963040828704834, 2.860903024673462, -0.7713972330093384, -6.996482849121094, -0.4525960087776184, -1.8052648305892944, -3.712390184402466], [-2.5310540199279785, 7.047497749328613, 6.167775630950928, -1.8602662086486816, 9.204156875610352, 4.31999397277832, -1.4998648166656494, 0.15359272062778473, -11.494613647460938, 9.91276741027832, -3.1352810859680176, 1.7647472620010376, 6.372560501098633, 1.7874479293823242, 3.1809566020965576, 10.05610179901123], [0.13568316400051117, -0.39328745007514954, -0.10851342231035233, 0.05033149942755699, -0.0740920826792717, -0.06770551949739456, -0.12657031416893005, 0.07825774699449539, 0.24405695497989655, 0.2615337371826172, 0.00840681977570057, 0.03854012116789818, -0.3920867443084717, 0.07415464520454407, -0.37060317397117615, -0.41854575276374817], [0.20941162109375, -0.05583449825644493, -0.39992958307266235, 0.33122265338897705, 0.2511259913444519, -0.4130254089832306, -0.036698292940855026, -0.07077135890722275, -0.2710288166999817, -0.15442417562007904, -0.21251945197582245, -0.03635549917817116, -0.25087234377861023, -0.09448149800300598, -0.7081742286682129, 0.07088692486286163], [-0.2500624656677246, -0.11931471526622772, 0.03133516013622284, -0.08451753109693527, 0.112281933426857, -0.25603756308555603, 0.5169506669044495, 1.412567138671875, -0.25437724590301514, -0.036500733345746994, 0.1939462274312973, 1.328286051750183, -0.07367753237485886, -0.2347358763217926, -0.26789435744285583, -0.10538845509290695], [0.15904341638088226, -0.1891244500875473, 0.10692828893661499, 0.21778622269630432, 0.1517965942621231, -0.023384932428598404, -0.08813157677650452, 0.10468591749668121, 0.4020121693611145, 0.3361979126930237, 0.05282970890402794, 0.13685421645641327, -0.22441928088665009, 0.0005053182831034064, -0.3484198749065399, -0.22067485749721527], [-0.030283330008387566, -0.14851167798042297, -0.04054047912359238, 0.09002167731523514, 0.22775223851203918, -0.21479345858097076, 0.20439453423023224, 0.1528075486421585, -0.15531393885612488, -0.0858994722366333, 0.051592521369457245, 0.09321334213018417, -0.18017490208148956, 0.021747879683971405, -0.5383637547492981, -0.019487997516989708], [0.009620451368391514, -0.16038842499256134, -0.13448761403560638, -0.22946657240390778, 0.2209758311510086, -0.06693638861179352, 0.6654798984527588, 1.2416012287139893, -0.20681823790073395, -0.09155149012804031, 0.28766506910324097, 0.996463418006897, -0.13205523788928986, 0.0012775987852364779, 0.02456129528582096, -0.09094138443470001], [-0.047404151409864426, -0.0999133363366127, -0.021840116009116173, 0.11730752885341644, -0.04704716429114342, 0.04780808091163635, 0.294961541891098, -0.09042643755674362, 0.35145166516304016, 0.30811944603919983, -0.11646861582994461, -0.028536904603242874, 0.3504978120326996, 0.0016448854003101587, -0.3738008141517639, 0.052686646580696106], [-0.28250405192375183, 0.15615525841712952, 0.21046528220176697, 0.516635000705719, -0.3806864023208618, 0.4441342055797577, -0.1335582286119461, 0.013295002281665802, 0.18077553808689117, -0.19661034643650055, -0.05757763981819153, 0.13050222396850586, 0.11016124486923218, 0.1294897198677063, -0.20287254452705383, -0.16278086602687836], [-0.11873900890350342, -0.3237057328224182, -0.1426371932029724, -0.26995137333869934, -0.04163505509495735, -0.021451668813824654, 0.6368741989135742, 1.0145881175994873, 0.048391882330179214, -0.04889233782887459, 0.18585510551929474, 0.9770351648330688, 0.01889600232243538, 0.17959488928318024, 0.002074088202789426, -0.14241616427898407], [-0.328607976436615, -0.2832386791706085, 0.12778154015541077, -0.13032874464988708, 0.00710346270352602, -0.01512256171554327, -0.176848903298378, -0.015256526879966259, -0.02283605933189392, -0.28492382168769836, 0.0540330745279789, -0.22034111618995667, -0.07740111649036407, -0.07899437844753265, 0.39608022570610046, -0.11331997811794281], [0.3687697649002075, -0.05020318552851677, -0.002785655902698636, 0.029585203155875206, 0.055586181581020355, -0.08583035320043564, -0.10726284235715866, -0.003781887935474515, -0.16677790880203247, 0.28482648730278015, 0.0209927037358284, -0.13003820180892944, -0.08261598646640778, 0.0003936306165996939, -0.1360965073108673, 0.17113526165485382], [-0.003514605574309826, -0.10572128742933273, -0.29376092553138733, -0.22574865818023682, 0.1495342254638672, -0.35109245777130127, 0.8438743948936462, -0.5335828065872192, 0.10189047455787659, 0.2941029965877533, 0.05651555955410004, 0.7580139636993408, 0.2073727399110794, 0.2209804207086563, 0.44046130776405334, 1.0024056434631348], [-0.129598930478096, -0.14696767926216125, 0.02462669461965561, 0.22541502118110657, -0.02883414551615715, -0.006266042590141296, 0.1545010507106781, -0.014635013416409492, 0.15455766022205353, -0.12389299273490906, -0.04074287414550781, 0.293229877948761, -0.028028707951307297, -0.006402087863534689, -0.06806067377328873, -0.17287665605545044], [-0.04201432690024376, 0.14501437544822693, -0.004998154006898403, -0.07128874957561493, -0.014177254401147366, 0.003149645635858178, -0.16011089086532593, -0.021852897480130196, -0.08171489089727402, 0.2778428792953491, -0.06005815416574478, -0.3216577172279358, -0.09856493026018143, -0.03497614711523056, 0.09885115176439285, -0.05691057816147804], [0.02414780855178833, -0.054251596331596375, -0.13253523409366608, 0.2651154100894928, 0.052876099944114685, -0.15300990641117096, -0.3482401967048645, -0.12109613418579102, -0.1610541194677353, 0.1358158141374588, -0.009335885755717754, -0.6513500809669495, 0.04525487869977951, 0.10530534386634827, 0.2901465594768524, 0.3175206780433655], [0.23000314831733704, 0.49893489480018616, 0.16567561030387878, 0.04189435765147209, 0.40711432695388794, 0.2776886820793152, 0.5232633352279663, 0.7071897387504578, 0.366390585899353, 0.0028323750011622906, -0.21051327884197235, 0.11680424213409424, 0.17938455939292908, 0.014489979483187199, 0.16122522950172424, 0.06710860133171082], [0.04492870345711708, 0.19278129935264587, 0.14379461109638214, 0.09857819974422455, 0.3100496232509613, 0.3042418956756592, 0.4828595817089081, 0.4769344627857208, -0.07775026559829712, -0.11458110809326172, -0.09980432689189911, 0.38407155871391296, 0.1329321414232254, 0.015762539580464363, -0.12073137611150742, 0.04388660192489624], [-0.03407212719321251, 0.4470093250274658, 0.33370164036750793, 0.15082457661628723, 0.6503488421440125, 0.18468496203422546, 0.5461816191673279, 0.449096143245697, 0.02149086259305477, 0.09422386437654495, 0.00014399134670384228, 0.8847824335098267, 0.022739842534065247, -0.1805611401796341, -0.056468646973371506, -0.027214327827095985], [0.8455343246459961, 0.7218612432479858, 0.10511628538370132, 0.004014446400105953, -0.007866421714425087, 0.14991304278373718, -0.6028386950492859, 0.7658812403678894, 0.8370189070701599, 0.46321049332618713, 0.12260355055332184, -0.03745197877287865, 0.1241624504327774, -0.31890755891799927, 0.8297684192657471, 0.6148976683616638], [-0.6863154768943787, -0.17781859636306763, 0.1539391279220581, 0.3871786892414093, 0.37033966183662415, 0.13650110363960266, -0.1393497884273529, 0.9487733244895935, -0.4450375437736511, -0.6395700573921204, 0.036095328629016876, 0.20569738745689392, 0.16678093373775482, 0.5512872934341431, -0.20219554007053375, -0.4495234489440918], [-0.07352716475725174, 0.2267025262117386, 0.6183501482009888, 0.45105645060539246, 0.8454622626304626, 0.4788600206375122, 1.740243673324585, -0.6657438278198242, -0.009467565454542637, -0.5604784488677979, -0.3240779936313629, 4.026875972747803, -0.02664877660572529, -0.004092654678970575, -0.4079194664955139, -1.3890060186386108], [0.061019331216812134, -0.30682373046875, 0.28272122144699097, 0.8851155638694763, 0.16480807960033417, 0.018750881776213646, 0.08606993407011032, -0.04658057168126106, -0.6370562314987183, 0.19977238774299622, 0.0258646160364151, -0.011932562105357647, -0.14223451912403107, -0.0833011120557785, -1.2980657815933228, -0.5816119313240051], [0.42265212535858154, 0.293152391910553, 0.20442917943000793, 0.20885328948497772, -0.005148503463715315, 0.017811881378293037, -0.12356842309236526, -0.10642851144075394, 0.1893623322248459, 0.02607479877769947, 0.01311176922172308, -0.04325249046087265, -0.18717613816261292, -0.5579147338867188, 0.6457537412643433, -0.05401234328746796], [0.10046567022800446, -0.013158559799194336, 0.09515564143657684, -0.1628490537405014, 0.15600794553756714, -0.13991931080818176, 2.6287567615509033, 0.003593249013647437, -0.044473547488451004, -0.04437914490699768, 0.41512545943260193, 4.491003036499023, -0.07465723156929016, 0.17483660578727722, -0.14350056648254395, -0.149825781583786], [-0.1314881592988968, 0.005305931903421879, -0.03332919999957085, 0.23786376416683197, -0.030248764902353287, -0.011189301498234272, 0.3285009562969208, -0.01586935482919216, 0.07589344680309296, -0.1267942190170288, 0.003641819581389427, 0.44370442628860474, -0.016680143773555756, -0.10807380825281143, 0.1718902587890625, 0.0038160530384629965], [-0.07260706275701523, -0.005500687286257744, -0.02779179811477661, 0.143720343708992, -0.020694004371762276, -0.005402139853686094, 0.35252177715301514, -0.020743204280734062, -0.0696394070982933, 0.0786227136850357, 0.031237028539180756, 0.5862632989883423, -0.016611680388450623, -0.008824232965707779, -0.16321995854377747, -0.06974862515926361], [-0.01525584701448679, 0.02698504365980625, -0.21080750226974487, 0.12163885682821274, 0.13071367144584656, 0.017614038661122322, -0.5568454265594482, 0.3002445697784424, 0.0359761044383049, -0.013676774688065052, 0.06824402511119843, -1.204512119293213, -0.09477584064006805, 0.10994342714548111, -0.253816694021225, -0.38217300176620483]], "1_weights": [[0.12074250727891922, 0.43369266390800476, 0.04888857528567314, 0.30516624450683594, -0.23488697409629822, -0.13258585333824158, -0.6895937919616699, 0.387459397315979, -0.9472571611404419, -0.4664095640182495, -0.3561757802963257, -0.1314942091703415, -0.021734116598963737, -0.4262773096561432, -1.0329668521881104, -0.3168570399284363], [0.3144667148590088, -0.1443406194448471, -0.4396072328090668, -0.15709301829338074, -0.05891084298491478, 0.19634674489498138, 0.1706285923719406, -0.7887844443321228, 0.5838335752487183, -0.03572789952158928, 0.18666842579841614, -0.012525465339422226, -0.7440733909606934, 0.4600847363471985, 0.026494048535823822, 0.5672540664672852], [-0.03774106875061989, 1.0473992824554443, -0.5466362833976746, 0.7251421809196472, -1.0976041555404663, 0.13424932956695557, -0.028710415586829185, -0.6418256759643555, -0.30281341075897217, 0.25668829679489136, 0.5328613519668579, 0.5904509425163269, -0.02076200395822525, -0.025836756452918053, -0.23232968151569366, 0.03898060694336891], [0.18801109492778778, -0.5017627477645874, 0.09264300018548965, 0.15562587976455688, 0.3209116458892822, 0.1774875372648239, 0.015408983454108238, -0.10264478623867035, -0.24150075018405914, -0.18564416468143463, -0.02914375253021717, 0.1676228791475296, -0.39961865544319153, 0.09530159085988998, -0.25962889194488525, 0.20144014060497284], [-0.18688416481018066, 0.24375073611736298, -1.4653220176696777, 0.025430742651224136, 0.5677024126052856, 0.07561121135950089, -0.2619341313838959, -2.9037864208221436, -0.04316702485084534, -0.4907276928424835, -1.733927607536316, -0.39750412106513977, -0.03977162018418312, 0.0736580416560173, -0.5589608550071716, 0.5089410543441772], [0.20477508008480072, 0.37098678946495056, 3.5333588123321533, 0.4258713722229004, 0.8526756763458252, 0.12730571627616882, 0.466128408908844, 5.533753871917725, -0.7566238045692444, 0.02573809213936329, 3.2137670516967773, 1.3594059944152832, -1.6091424226760864, -0.15624625980854034, -13.556520462036133, 0.5413106083869934], [-0.5166928768157959, 2.5090928077697754, -0.06291978806257248, 0.21025432646274567, -0.7979467511177063, -0.496315598487854, 0.3100758194923401, -2.0045220851898193, -1.472632646560669, 0.43732109665870667, 0.8195909261703491, -0.625091016292572, 3.5946295261383057, -0.748322606086731, -1.9722118377685547, -0.7242186069488525], [-0.3709383010864258, 0.2287304550409317, 0.3679034411907196, -0.17088988423347473, 2.4728264808654785, 0.864682137966156, 3.331075668334961, 9.944413185119629, -3.748208522796631, 2.4727745056152344, 5.329418182373047, -2.168955087661743, 0.4508499205112457, 2.6695685386657715, 22.57814598083496, 1.2655127048492432], [-0.28246793150901794, -0.6392853260040283, -0.14015087485313416, 0.14555524289608002, 0.3829643130302429, 0.3262809216976166, 0.12938469648361206, -0.3360689878463745, 0.5819926857948303, 0.4288354814052582, 0.039821915328502655, 0.16980420053005219, 0.3802185654640198, 0.26412680745124817, -0.2277868092060089, 0.3854491412639618], [-0.39621853828430176, 0.09409783035516739, 0.06538227945566177, -0.05846481770277023, 0.11903654783964157, 0.6721379160881042, 0.131209596991539, -0.20939865708351135, -0.015518346801400185, -0.9121545553207397, 0.12421603500843048, 0.0028883274644613266, -1.6676138639450073, 0.8057892322540283, 7.982327224453911e-05, 0.8677734136581421], [0.2805608808994293, -0.5380004048347473, -0.552914559841156, 0.6229583621025085, -0.01206198986619711, 0.06586597114801407, -0.224061980843544, 0.6388130784034729, 0.21486708521842957, 0.2579575777053833, 0.34839630126953125, 1.3026175498962402, -1.573751449584961, 0.30274683237075806, 0.844795286655426, 0.025603102520108223], [0.320846289396286, -1.4850016832351685, 0.12127433717250824, -0.21854111552238464, 0.49345067143440247, 0.34305474162101746, -0.15510983765125275, 0.04447322338819504, -1.649666428565979, -0.3522135615348816, -1.0681260824203491, 0.22158265113830566, -2.2422702312469482, 0.4872121214866638, -7.938105583190918, 0.44350868463516235], [-0.7949371933937073, 0.7173624634742737, 0.27317678928375244, -1.758349061012268, -0.022955624386668205, 0.5338596105575562, 0.9552402496337891, -0.5364598035812378, 2.1070003509521484, 0.08157316595315933, -0.4282088279724121, -0.8087656497955322, -0.1604209691286087, 0.8441769480705261, -0.7218033671379089, 1.0242077112197876], [0.22116349637508392, -0.36780866980552673, -0.20122148096561432, 0.4671175479888916, 0.061318669468164444, 0.27464064955711365, -1.0922584533691406, 0.05727524310350418, -0.351509153842926, 0.030650446191430092, 0.4695952534675598, 0.6722894906997681, 0.5793056488037109, 0.36445531249046326, 0.32079386711120605, 0.13094960153102875], [0.5147618055343628, 0.22681473195552826, 0.120381198823452, 0.15150439739227295, 0.004132094793021679, 0.006470000371336937, -0.3791275918483734, 0.3155456483364105, -7.596721172332764, -0.4046134650707245, -0.14619092643260956, 0.15296046435832977, -0.5139740705490112, -0.12318968027830124, -0.658888041973114, 0.029338765889406204], [0.5575117468833923, -3.9687485694885254, 0.16326949000358582, 0.21202068030834198, 0.03812011331319809, -0.06069822236895561, 0.5041426420211792, 0.1350814402103424, -0.20436318218708038, 0.6835618615150452, 0.11221925169229507, 0.1672266274690628, 0.4990461468696594, -0.038535624742507935, 0.20292867720127106, -0.20873579382896423]], "2_weights": [[-0.20949535071849823, -0.21698275208473206, -0.24180147051811218], [-0.2860351502895355, -0.21587154269218445, -0.18531112372875214], [-1.025672197341919, -0.935605525970459, -0.7973924875259399], [-0.4029991030693054, -0.4184611439704895, -0.4095620810985565], [-0.22151517868041992, -0.1738206446170807, -0.14567598700523376], [0.09237426519393921, -0.03092719428241253, -0.2111673355102539], [0.016050023958086967, 0.11190155148506165, 0.24779359996318817], [-0.4657135307788849, -0.45031893253326416, -0.4342001676559448], [-0.23747892677783966, -0.22439293563365936, -0.1829836219549179], [-0.2709140181541443, -0.27887290716171265, -0.2799404561519623], [-0.3621074855327606, -0.33132070302963257, -0.3328235447406769], [-1.4923089742660522, -1.5437331199645996, -1.4721956253051758], [-2.6958131790161133, -2.554640531539917, -6.201619625091553], [-0.32366177439689636, -0.19683246314525604, -0.10029705613851547], [0.4471670985221863, 0.4074002504348755, 0.40349557995796204], [-0.23444682359695435, -0.2768295705318451, -0.2560579776763916]], "0_bias": [0.2718917429447174, 0.3335660398006439, 0.2784673273563385, 0.3194209039211273, 0.5542358160018921, 0.11352713406085968, 0.4605548679828644, 0.5918712019920349, 0.10205695778131485, 0.09967821836471558, -0.1200237050652504, 0.34849950671195984, 0.18483629822731018, 0.03266999498009682, 0.12017624080181122, 0.11533229053020477], "1_bias": [-0.48632025718688965, -0.7542951107025146, -0.20793673396110535, 0.24366480112075806, 0.3218288719654083, -0.14344164729118347, 0.543995201587677, -0.628511369228363, 0.5581210255622864, 1.056462287902832, 0.14185689389705658, -2.937485456466675, -1.6226887702941895, 0.10107588022947311, 1.868078589439392, -0.11571414023637772], "2_bias": [-0.2033851444721222, -0.15413084626197815, -0.0471586138010025]}